<?xml version="1.0"?>
<opencv_storage>
<cascade>
  <stageType>BOOST</stageType>
  <featureType>HAAR</featureType>
  <height>24</height>
  <width>24</width>
  <stageParams>
    <boostType>GAB</boostType>
    <minHitRate>9.9500000476837158e-01</minHitRate>
    <maxFalseAlarm>5.0000000000000000e-01</maxFalseAlarm>
    <weightTrimRate>9.4999998807907104e-01</weightTrimRate>
    <maxDepth>1</maxDepth>
    <maxWeakCount>100</maxWeakCount></stageParams>
  <featureParams>
    <maxCatCount>0</maxCatCount>
    <featSize>1</featSize>
    <mode>BASIC</mode></featureParams>
  <stageNum>20</stageNum>
  <stages>
    <!-- stage 0 -->
    <_>
      <maxWeakCount>2</maxWeakCount>
      <stageThreshold>2.0033925771713257e-02</stageThreshold>
      <weakClassifiers>
        <_>
          <internalNodes>
            0 -1 63 4.3768931180238724e-02</internalNodes>
          <leafValues>
            -8.2248520851135254e-01 9.4607841968536377e-01</leafValues></_>
        <_>
          <internalNodes>
            0 -1 52 -3.8565164431929588e-03</internalNodes>
          <leafValues>
            8.4251910448074341e-01 -8.2815504074096680e-01</leafValues></_></weakClassifiers></_>
    <!-- stage 1 -->
    <_>
      <maxWeakCount>3</maxWeakCount>
      <stageThreshold>-5.6046682596206665e-01</stageThreshold>
      <weakClassifiers>
        <_>
          <internalNodes>
            0 -1 78 -2.6195105165243149e-02</internalNodes>
          <leafValues>
            8.6698913574218750e-01 -6.8195718526840210e-01</leafValues></_>
        <_>
          <internalNodes>
            0 -1 68 2.3377981036901474e-02</internalNodes>
          <leafValues>
            -6.7762535810470581e-01 7.6975089311599731e-01</leafValues></_>
        <_>
          <internalNodes>
            0 -1 18 7.6591549441218376e-03</internalNodes>
          <leafValues>
            -5.8053100109100342e-01 7.9911571741104126e-01</leafValues></_></weakClassifiers></_>
    <!-- stage 2 -->
    <_>
      <maxWeakCount>4</maxWeakCount>
      <stageThreshold>-1.2224894762039185e+00</stageThreshold>
      <weakClassifiers>
        <_>
          <internalNodes>
            0 -1 3 5.0530880689620972e-03</internalNodes>
          <leafValues>
            -5.7475084066390991e-01 7.8194606304168701e-01</leafValues></_>
        <_>
          <internalNodes>
            0 -1 55 5.1134981215000153e-02</internalNodes>
          <leafValues>
            -7.9573613405227661e-01 6.2493193149566650e-01</leafValues></_>
        <_>
          <internalNodes>
            0 -1 38 -9.5411017537117004e-03</internalNodes>
          <leafValues>
            6.3330864906311035e-01 -6.9230121374130249e-01</leafValues></_>
        <_>
          <internalNodes>
            0 -1 48 -1.5015460550785065e-02</internalNodes>
          <leafValues>
            7.7656394243240356e-01 -5.8036935329437256e-01</leafValues></_></weakClassifiers></_>
    <!-- stage 3 -->
    <_>
      <maxWeakCount>2</maxWeakCount>
      <stageThreshold>6.1499152332544327e-02</stageThreshold>
      <weakClassifiers>
        <_>
          <internalNodes>
            0 -1 54 5.1868329755961895e-03</internalNodes>
          <leafValues>
            -6.3225805759429932e-01 8.1753551959991455e-01</leafValues></_>
        <_>
          <internalNodes>
            0 -1 72 1.5016821213066578e-02</internalNodes>
          <leafValues>
            -6.6416078805923462e-01 6.9375723600387573e-01</leafValues></_></weakClassifiers></_>
    <!-- stage 4 -->
    <_>
      <maxWeakCount>4</maxWeakCount>
      <stageThreshold>-2.3525540530681610e-01</stageThreshold>
      <weakClassifiers>
        <_>
          <internalNodes>
            0 -1 46 1.3869043439626694e-02</internalNodes>
          <leafValues>
            -5.9856629371643066e-01 7.5542855262756348e-01</leafValues></_>
        <_>
          <internalNodes>
            0 -1 47 -1.4152165502309799e-02</internalNodes>
          <leafValues>
            6.9628149271011353e-01 -5.4106122255325317e-01</leafValues></_>
        <_>
          <internalNodes>
            0 -1 41 3.0943775549530983e-02</internalNodes>
          <leafValues>
            -7.3326551914215088e-01 4.6127688884735107e-01</leafValues></_>
        <_>
          <internalNodes>
            0 -1 51 -8.3524081856012344e-03</internalNodes>
          <leafValues>
            4.4309520721435547e-01 -7.2295379638671875e-01</leafValues></_></weakClassifiers></_>
    <!-- stage 5 -->
    <_>
      <maxWeakCount>5</maxWeakCount>
      <stageThreshold>-9.6928256750106812e-01</stageThreshold>
      <weakClassifiers>
        <_>
          <internalNodes>
            0 -1 27 4.0225656703114510e-03</internalNodes>
          <leafValues>
            -3.2151898741722107e-01 8.1818181276321411e-01</leafValues></_>
        <_>
          <internalNodes>
            0 -1 25 1.0291561484336853e-02</internalNodes>
          <leafValues>
            -3.9561909437179565e-01 7.1495544910430908e-01</leafValues></_>
        <_>
          <internalNodes>
            0 -1 99 1.3324660249054432e-02</internalNodes>
          <leafValues>
            -4.7246992588043213e-01 6.0518825054168701e-01</leafValues></_>
        <_>
          <internalNodes>
            0 -1 13 6.3622049987316132e-02</internalNodes>
          <leafValues>
            -3.9783239364624023e-01 8.2045382261276245e-01</leafValues></_>
        <_>
          <internalNodes>
            0 -1 135 -4.1282903403043747e-03</internalNodes>
          <leafValues>
            6.3966363668441772e-01 -5.2154296636581421e-01</leafValues></_></weakClassifiers></_>
    <!-- stage 6 -->
    <_>
      <maxWeakCount>7</maxWeakCount>
      <stageThreshold>-5.9083014726638794e-01</stageThreshold>
      <weakClassifiers>
        <_>
          <internalNodes>
            0 -1 80 -7.3968241922557354e-03</internalNodes>
          <leafValues>
            6.5263158082962036e-01 -6.1764705181121826e-01</leafValues></_>
        <_>
          <internalNodes>
            0 -1 21 1.1284455657005310e-02</internalNodes>
          <leafValues>
            -4.4667249917984009e-01 6.4658397436141968e-01</leafValues></_>
        <_>
          <internalNodes>
            0 -1 8 8.5585698485374451e-02</internalNodes>
          <leafValues>
            -3.9545670151710510e-01 7.2384011745452881e-01</leafValues></_>
        <_>
          <internalNodes>
            0 -1 88 9.9872611463069916e-03</internalNodes>
          <leafValues>
            -5.2154529094696045e-01 5.9061062335968018e-01</leafValues></_>
        <_>
          <internalNodes>
            0 -1 67 -4.0359874255955219e-03</internalNodes>
          <leafValues>
            3.1614574790000916e-01 -7.4245738983154297e-01</leafValues></_>
        <_>
          <internalNodes>
            0 -1 74 9.4107555923983455e-04</internalNodes>
          <leafValues>
            -7.3229676485061646e-01 2.8949669003486633e-01</leafValues></_>
        <_>
          <internalNodes>
            0 -1 42 -1.1420406401157379e-01</internalNodes>
          <leafValues>
            7.9191732406616211e-01 -3.0840751528739929e-01</leafValues></_></weakClassifiers></_>
    <!-- stage 7 -->
    <_>
      <maxWeakCount>5</maxWeakCount>
      <stageThreshold>-4.7723135352134705e-01</stageThreshold>
      <weakClassifiers>
        <_>
          <internalNodes>
            0 -1 50 2.0163457840681076e-02</internalNodes>
          <leafValues>
            -7.6923078298568726e-01 6.1523044109344482e-01</leafValues></_>
        <_>
          <internalNodes>
            0 -1 1 1.6797626391053200e-02</internalNodes>
          <leafValues>
            -3.8052803277969360e-01 7.4031251668930054e-01</leafValues></_>
        <_>
          <internalNodes>
            0 -1 7 5.2699887752532959e-01</internalNodes>
          <leafValues>
            -2.6463258266448975e-01 8.9474034309387207e-01</leafValues></_>
        <_>
          <internalNodes>
            0 -1 77 -1.4485491439700127e-02</internalNodes>
          <leafValues>
            4.8381102085113525e-01 -5.2633112668991089e-01</leafValues></_>
        <_>
          <internalNodes>
            0 -1 86 1.0502098128199577e-02</internalNodes>
          <leafValues>
            3.0411818623542786e-01 -7.9341250658035278e-01</leafValues></_></weakClassifiers></_>
    <!-- stage 8 -->
    <_>
      <maxWeakCount>6</maxWeakCount>
      <stageThreshold>-4.5207089185714722e-01</stageThreshold>
      <weakClassifiers>
        <_>
          <internalNodes>
            0 -1 37 -1.7660618759691715e-03</internalNodes>
          <leafValues>
            6.3185107707977295e-01 -6.2566846609115601e-01</leafValues></_>
        <_>
          <internalNodes>
            0 -1 2 2.8645265847444534e-03</internalNodes>
          <leafValues>
            -5.2323800325393677e-01 4.9495831131935120e-01</leafValues></_>
        <_>
          <internalNodes>
            0 -1 11 1.1243054643273354e-02</internalNodes>
          <leafValues>
            -3.8230279088020325e-01 6.0883206129074097e-01</leafValues></_>
        <_>
          <internalNodes>
            0 -1 131 4.8235747963190079e-03</internalNodes>
          <leafValues>
            -4.3506681919097900e-01 5.5233782529830933e-01</leafValues></_>
        <_>
          <internalNodes>
            0 -1 111 -5.7222525356337428e-05</internalNodes>
          <leafValues>
            3.6099308729171753e-01 -6.2363976240158081e-01</leafValues></_>
        <_>
          <internalNodes>
            0 -1 117 2.7444897568784654e-05</internalNodes>
          <leafValues>
            -8.2532739639282227e-01 2.3647539317607880e-01</leafValues></_></weakClassifiers></_>
    <!-- stage 9 -->
    <_>
      <maxWeakCount>8</maxWeakCount>
      <stageThreshold>-1.0382112264633179e+00</stageThreshold>
      <weakClassifiers>
        <_>
          <internalNodes>
            0 -1 17 1.3316379860043526e-02</internalNodes>
          <leafValues>
            -9.4188377261161804e-02 8.2595419883728027e-01</leafValues></_>
        <_>
          <internalNodes>
            0 -1 103 1.9822980902972631e-05</internalNodes>
          <leafValues>
            -7.7091449499130249e-01 3.8143059611320496e-01</leafValues></_>
        <_>
          <internalNodes>
            0 -1 73 5.2068801596760750e-03</internalNodes>
          <leafValues>
            -5.8301663398742676e-01 3.6279392242431641e-01</leafValues></_>
        <_>
          <internalNodes>
            0 -1 118 7.8238481655716896e-03</internalNodes>
          <leafValues>
            -5.1503658294677734e-01 4.2879861593246460e-01</leafValues></_>
        <_>
          <internalNodes>
            0 -1 71 -3.5188175737857819e-02</internalNodes>
          <leafValues>
            2.9331085085868835e-01 -6.8337452411651611e-01</leafValues></_>
        <_>
          <internalNodes>
            0 -1 129 -3.9789412170648575e-02</internalNodes>
          <leafValues>
            7.0036536455154419e-01 -3.1834670901298523e-01</leafValues></_>
        <_>
          <internalNodes>
            0 -1 101 -3.0948375351727009e-03</internalNodes>
          <leafValues>
            4.6964126825332642e-01 -4.7880086302757263e-01</leafValues></_>
        <_>
          <internalNodes>
            0 -1 65 1.5982786193490028e-02</internalNodes>
          <leafValues>
            2.7643647789955139e-01 -7.4563175439834595e-01</leafValues></_></weakClassifiers></_>
    <!-- stage 10 -->
    <_>
      <maxWeakCount>6</maxWeakCount>
      <stageThreshold>-4.6027758717536926e-01</stageThreshold>
      <weakClassifiers>
        <_>
          <internalNodes>
            0 -1 115 3.3892726060003042e-04</internalNodes>
          <leafValues>
            6.0120242834091187e-01 -6.7948716878890991e-01</leafValues></_>
        <_>
          <internalNodes>
            0 -1 24 1.2362063862383366e-02</internalNodes>
          <leafValues>
            -3.9770469069480896e-01 6.7952221632003784e-01</leafValues></_>
        <_>
          <internalNodes>
            0 -1 116 -6.7362276604399085e-04</internalNodes>
          <leafValues>
            -8.4943985939025879e-01 3.1906253099441528e-01</leafValues></_>
        <_>
          <internalNodes>
            0 -1 58 2.8457157313823700e-02</internalNodes>
          <leafValues>
            -6.1541199684143066e-01 3.5908591747283936e-01</leafValues></_>
        <_>
          <internalNodes>
            0 -1 20 2.9658351093530655e-02</internalNodes>
          <leafValues>
            -3.3652123808860779e-01 6.6275846958160400e-01</leafValues></_>
        <_>
          <internalNodes>
            0 -1 95 1.6697810497134924e-04</internalNodes>
          <leafValues>
            -5.8358943462371826e-01 3.6656260490417480e-01</leafValues></_></weakClassifiers></_>
    <!-- stage 11 -->
    <_>
      <maxWeakCount>8</maxWeakCount>
      <stageThreshold>-6.0456377267837524e-01</stageThreshold>
      <weakClassifiers>
        <_>
          <internalNodes>
            0 -1 96 -4.1963317198678851e-04</internalNodes>
          <leafValues>
            -6.3636362552642822e-01 5.7863503694534302e-01</leafValues></_>
        <_>
          <internalNodes>
            0 -1 79 8.0128032714128494e-03</internalNodes>
          <leafValues>
            -5.1977097988128662e-01 4.0803250670433044e-01</leafValues></_>
        <_>
          <internalNodes>
            0 -1 135 -8.9516984298825264e-03</internalNodes>
          <leafValues>
            5.6513470411300659e-01 -3.3127185702323914e-01</leafValues></_>
        <_>
          <internalNodes>
            0 -1 9 -2.4422367569059134e-03</internalNodes>
          <leafValues>
            -8.4383869171142578e-01 2.2623242437839508e-01</leafValues></_>
        <_>
          <internalNodes>
            0 -1 119 -2.2549778223037720e-02</internalNodes>
          <leafValues>
            6.5395337343215942e-01 -2.9604193568229675e-01</leafValues></_>
        <_>
          <internalNodes>
            0 -1 33 3.7128422409296036e-03</internalNodes>
          <leafValues>
            -4.2164576053619385e-01 4.5824950933456421e-01</leafValues></_>
        <_>
          <internalNodes>
            0 -1 108 6.5173883922398090e-04</internalNodes>
          <leafValues>
            -7.0390582084655762e-01 2.4320718646049500e-01</leafValues></_>
        <_>
          <internalNodes>
            0 -1 84 4.9559434410184622e-04</internalNodes>
          <leafValues>
            -6.8706125020980835e-01 2.5119554996490479e-01</leafValues></_></weakClassifiers></_>
    <!-- stage 12 -->
    <_>
      <maxWeakCount>12</maxWeakCount>
      <stageThreshold>-8.0451303720474243e-01</stageThreshold>
      <weakClassifiers>
        <_>
          <internalNodes>
            0 -1 36 5.3179934620857239e-03</internalNodes>
          <leafValues>
            -3.6090224981307983e-01 6.6441440582275391e-01</leafValues></_>
        <_>
          <internalNodes>
            0 -1 49 -1.1590644717216492e-02</internalNodes>
          <leafValues>
            4.0580922365188599e-01 -4.7412571310997009e-01</leafValues></_>
        <_>
          <internalNodes>
            0 -1 104 -3.2060910598374903e-04</internalNodes>
          <leafValues>
            -7.3448765277862549e-01 2.4277380108833313e-01</leafValues></_>
        <_>
          <internalNodes>
            0 -1 54 2.0803509280085564e-02</internalNodes>
          <leafValues>
            -3.6931309103965759e-01 5.0002276897430420e-01</leafValues></_>
        <_>
          <internalNodes>
            0 -1 98 -5.6083179078996181e-03</internalNodes>
          <leafValues>
            2.8030845522880554e-01 -6.0904753208160400e-01</leafValues></_>
        <_>
          <internalNodes>
            0 -1 81 3.8380352780222893e-03</internalNodes>
          <leafValues>
            -7.8886544704437256e-01 1.9402548670768738e-01</leafValues></_>
        <_>
          <internalNodes>
            0 -1 45 -7.7404398471117020e-03</internalNodes>
          <leafValues>
            -7.1053004264831543e-01 1.8677882850170135e-01</leafValues></_>
        <_>
          <internalNodes>
            0 -1 107 2.4625573132652789e-05</internalNodes>
          <leafValues>
            -5.9866487979888916e-01 2.2939924895763397e-01</leafValues></_>
        <_>
          <internalNodes>
            0 -1 126 -9.8700277507305145e-02</internalNodes>
          <leafValues>
            5.8903163671493530e-01 -2.6928558945655823e-01</leafValues></_>
        <_>
          <internalNodes>
            0 -1 64 -1.8790956819429994e-03</internalNodes>
          <leafValues>
            4.3348881602287292e-01 -4.1235941648483276e-01</leafValues></_>
        <_>
          <internalNodes>
            0 -1 134 -6.5936790779232979e-03</internalNodes>
          <leafValues>
            5.6978720426559448e-01 -2.8354257345199585e-01</leafValues></_>
        <_>
          <internalNodes>
            0 -1 22 -5.5523699847981334e-04</internalNodes>
          <leafValues>
            -6.1217892169952393e-01 2.5973346829414368e-01</leafValues></_></weakClassifiers></_>
    <!-- stage 13 -->
    <_>
      <maxWeakCount>8</maxWeakCount>
      <stageThreshold>-8.4856003522872925e-01</stageThreshold>
      <weakClassifiers>
        <_>
          <internalNodes>
            0 -1 94 1.3991117011755705e-03</internalNodes>
          <leafValues>
            6.1377871036529541e-01 -4.7959184646606445e-01</leafValues></_>
        <_>
          <internalNodes>
            0 -1 93 -4.0724044665694237e-03</internalNodes>
          <leafValues>
            4.0329328179359436e-01 -5.0616425275802612e-01</leafValues></_>
        <_>
          <internalNodes>
            0 -1 90 8.6622759699821472e-03</internalNodes>
          <leafValues>
            3.0664876103401184e-01 -5.6676661968231201e-01</leafValues></_>
        <_>
          <internalNodes>
            0 -1 57 9.2752184718847275e-04</internalNodes>
          <leafValues>
            -6.7104363441467285e-01 2.5547546148300171e-01</leafValues></_>
        <_>
          <internalNodes>
            0 -1 70 1.6749273985624313e-02</internalNodes>
          <leafValues>
            -3.3862772583961487e-01 5.5881595611572266e-01</leafValues></_>
        <_>
          <internalNodes>
            0 -1 62 1.3248194009065628e-02</internalNodes>
          <leafValues>
            -7.5941079854965210e-01 2.2225554287433624e-01</leafValues></_>
        <_>
          <internalNodes>
            0 -1 29 -3.5450269933789968e-04</internalNodes>
          <leafValues>
            -8.1753921508789063e-01 2.0976895093917847e-01</leafValues></_>
        <_>
          <internalNodes>
            0 -1 31 1.6196251381188631e-03</internalNodes>
          <leafValues>
            -5.8176636695861816e-01 2.8902804851531982e-01</leafValues></_></weakClassifiers></_>
    <!-- stage 14 -->
    <_>
      <maxWeakCount>9</maxWeakCount>
      <stageThreshold>-1.0613371133804321e+00</stageThreshold>
      <weakClassifiers>
        <_>
          <internalNodes>
            0 -1 114 -4.7956448979675770e-03</internalNodes>
          <leafValues>
            6.6109782457351685e-01 -1.8987341225147247e-01</leafValues></_>
        <_>
          <internalNodes>
            0 -1 32 3.6747558624483645e-04</internalNodes>
          <leafValues>
            3.3369046449661255e-01 -6.0985660552978516e-01</leafValues></_>
        <_>
          <internalNodes>
            0 -1 34 3.0957041308283806e-03</internalNodes>
          <leafValues>
            -4.3544590473175049e-01 3.9683493971824646e-01</leafValues></_>
        <_>
          <internalNodes>
            0 -1 6 1.4022645354270935e-01</internalNodes>
          <leafValues>
            -3.5579350590705872e-01 5.6477689743041992e-01</leafValues></_>
        <_>
          <internalNodes>
            0 -1 91 1.3085938990116119e-02</internalNodes>
          <leafValues>
            -4.7117400169372559e-01 4.0836501121520996e-01</leafValues></_>
        <_>
          <internalNodes>
            0 -1 53 2.1860226988792419e-03</internalNodes>
          <leafValues>
            -7.7371418476104736e-01 2.1773502230644226e-01</leafValues></_>
        <_>
          <internalNodes>
            0 -1 112 9.1004539281129837e-03</internalNodes>
          <leafValues>
            -5.2334868907928467e-01 2.8688591718673706e-01</leafValues></_>
        <_>
          <internalNodes>
            0 -1 5 -5.2385200979188085e-04</internalNodes>
          <leafValues>
            -7.4302488565444946e-01 1.8685744702816010e-01</leafValues></_>
        <_>
          <internalNodes>
            0 -1 4 2.5773444212973118e-04</internalNodes>
          <leafValues>
            2.2320376336574554e-01 -6.5626537799835205e-01</leafValues></_></weakClassifiers></_>
    <!-- stage 15 -->
    <_>
      <maxWeakCount>11</maxWeakCount>
      <stageThreshold>-3.3310678601264954e-01</stageThreshold>
      <weakClassifiers>
        <_>
          <internalNodes>
            0 -1 32 -4.8668889212422073e-04</internalNodes>
          <leafValues>
            -3.3333334326744080e-01 5.9450894594192505e-01</leafValues></_>
        <_>
          <internalNodes>
            0 -1 23 6.1947777867317200e-03</internalNodes>
          <leafValues>
            -4.9132931232452393e-01 3.6148357391357422e-01</leafValues></_>
        <_>
          <internalNodes>
            0 -1 124 1.6696238890290260e-02</internalNodes>
          <leafValues>
            -3.0440661311149597e-01 5.0305241346359253e-01</leafValues></_>
        <_>
          <internalNodes>
            0 -1 56 4.7025462845340371e-04</internalNodes>
          <leafValues>
            -4.4528990983963013e-01 3.3902412652969360e-01</leafValues></_>
        <_>
          <internalNodes>
            0 -1 14 1.1005546152591705e-01</internalNodes>
          <leafValues>
            -2.4240837991237640e-01 6.5063232183456421e-01</leafValues></_>
        <_>
          <internalNodes>
            0 -1 123 1.5581373008899391e-04</internalNodes>
          <leafValues>
            -6.2869495153427124e-01 2.4969132244586945e-01</leafValues></_>
        <_>
          <internalNodes>
            0 -1 110 4.2938964907079935e-04</internalNodes>
          <leafValues>
            -3.9838281273841858e-01 3.7680521607398987e-01</leafValues></_>
        <_>
          <internalNodes>
            0 -1 61 1.8566643819212914e-02</internalNodes>
          <leafValues>
            -6.0854750871658325e-01 2.6628136634826660e-01</leafValues></_>
        <_>
          <internalNodes>
            0 -1 106 -9.5279980450868607e-04</internalNodes>
          <leafValues>
            2.2817791998386383e-01 -6.4421123266220093e-01</leafValues></_>
        <_>
          <internalNodes>
            0 -1 121 2.8314092196524143e-04</internalNodes>
          <leafValues>
            1.6179314255714417e-01 -8.3502155542373657e-01</leafValues></_>
        <_>
          <internalNodes>
            0 -1 69 4.3883868493139744e-03</internalNodes>
          <leafValues>
            -4.9721509218215942e-01 2.9190018773078918e-01</leafValues></_></weakClassifiers></_>
    <!-- stage 16 -->
    <_>
      <maxWeakCount>11</maxWeakCount>
      <stageThreshold>-6.0048747062683105e-01</stageThreshold>
      <weakClassifiers>
        <_>
          <internalNodes>
            0 -1 40 5.8196997269988060e-03</internalNodes>
          <leafValues>
            -6.3358777761459351e-01 5.6402736902236938e-01</leafValues></_>
        <_>
          <internalNodes>
            0 -1 132 4.4205905869603157e-03</internalNodes>
          <leafValues>
            -3.2698401808738708e-01 5.4586726427078247e-01</leafValues></_>
        <_>
          <internalNodes>
            0 -1 89 -4.5570922084152699e-03</internalNodes>
          <leafValues>
            3.7199732661247253e-01 -4.6025523543357849e-01</leafValues></_>
        <_>
          <internalNodes>
            0 -1 109 1.3752475380897522e-02</internalNodes>
          <leafValues>
            -4.1091912984848022e-01 4.1208097338676453e-01</leafValues></_>
        <_>
          <internalNodes>
            0 -1 0 1.2466259300708771e-02</internalNodes>
          <leafValues>
            -3.3163622021675110e-01 4.8203858733177185e-01</leafValues></_>
        <_>
          <internalNodes>
            0 -1 15 -1.9614584743976593e-03</internalNodes>
          <leafValues>
            2.7751955389976501e-01 -5.9377163648605347e-01</leafValues></_>
        <_>
          <internalNodes>
            0 -1 43 6.6429644823074341e-02</internalNodes>
          <leafValues>
            -2.7631321549415588e-01 5.4680913686752319e-01</leafValues></_>
        <_>
          <internalNodes>
            0 -1 76 -2.5377981364727020e-02</internalNodes>
          <leafValues>
            3.8030302524566650e-01 -4.4694691896438599e-01</leafValues></_>
        <_>
          <internalNodes>
            0 -1 92 9.2191010713577271e-02</internalNodes>
          <leafValues>
            1.6011939942836761e-01 -7.3253589868545532e-01</leafValues></_>
        <_>
          <internalNodes>
            0 -1 130 5.1088444888591766e-03</internalNodes>
          <leafValues>
            -3.0802991986274719e-01 5.0117731094360352e-01</leafValues></_>
        <_>
          <internalNodes>
            0 -1 16 -7.0088300853967667e-03</internalNodes>
          <leafValues>
            -7.7686041593551636e-01 1.9621117413043976e-01</leafValues></_></weakClassifiers></_>
    <!-- stage 17 -->
    <_>
      <maxWeakCount>9</maxWeakCount>
      <stageThreshold>-8.5488718748092651e-01</stageThreshold>
      <weakClassifiers>
        <_>
          <internalNodes>
            0 -1 44 -2.6904297992587090e-03</internalNodes>
          <leafValues>
            5.9712231159210205e-01 -4.8066297173500061e-01</leafValues></_>
        <_>
          <internalNodes>
            0 -1 75 3.2960837706923485e-03</internalNodes>
          <leafValues>
            2.8629440069198608e-01 -6.4720475673675537e-01</leafValues></_>
        <_>
          <internalNodes>
            0 -1 100 8.4235165268182755e-03</internalNodes>
          <leafValues>
            -3.2303091883659363e-01 4.7293913364410400e-01</leafValues></_>
        <_>
          <internalNodes>
            0 -1 125 1.1007796274498105e-04</internalNodes>
          <leafValues>
            -5.0255161523818970e-01 2.7810803055763245e-01</leafValues></_>
        <_>
          <internalNodes>
            0 -1 97 1.0626113042235374e-02</internalNodes>
          <leafValues>
            -3.5567817091941833e-01 4.2740458250045776e-01</leafValues></_>
        <_>
          <internalNodes>
            0 -1 60 1.8792528659105301e-02</internalNodes>
          <leafValues>
            -6.2291926145553589e-01 2.7096369862556458e-01</leafValues></_>
        <_>
          <internalNodes>
            0 -1 133 2.1279426291584969e-03</internalNodes>
          <leafValues>
            -3.7188795208930969e-01 3.7482827901840210e-01</leafValues></_>
        <_>
          <internalNodes>
            0 -1 59 -2.8372762608341873e-04</internalNodes>
          <leafValues>
            2.4743404984474182e-01 -5.2054518461227417e-01</leafValues></_>
        <_>
          <internalNodes>
            0 -1 4 4.1375521686859429e-04</internalNodes>
          <leafValues>
            1.7522644996643066e-01 -7.7706849575042725e-01</leafValues></_></weakClassifiers></_>
    <!-- stage 18 -->
    <_>
      <maxWeakCount>10</maxWeakCount>
      <stageThreshold>-5.9887337684631348e-01</stageThreshold>
      <weakClassifiers>
        <_>
          <internalNodes>
            0 -1 120 -4.8488489119336009e-04</internalNodes>
          <leafValues>
            5.8383840322494507e-01 -5.1219511032104492e-01</leafValues></_>
        <_>
          <internalNodes>
            0 -1 66 -1.0035976301878691e-03</internalNodes>
          <leafValues>
            4.5609974861145020e-01 -3.0557727813720703e-01</leafValues></_>
        <_>
          <internalNodes>
            0 -1 102 5.3739757277071476e-05</internalNodes>
          <leafValues>
            -8.8359409570693970e-01 1.6449625790119171e-01</leafValues></_>
        <_>
          <internalNodes>
            0 -1 12 3.3523805439472198e-02</internalNodes>
          <leafValues>
            -3.4508562088012695e-01 3.9435228705406189e-01</leafValues></_>
        <_>
          <internalNodes>
            0 -1 39 6.4032711088657379e-04</internalNodes>
          <leafValues>
            -4.0707612037658691e-01 3.5133066773414612e-01</leafValues></_>
        <_>
          <internalNodes>
            0 -1 19 1.4096819795668125e-02</internalNodes>
          <leafValues>
            -6.4442104101181030e-01 2.0152348279953003e-01</leafValues></_>
        <_>
          <internalNodes>
            0 -1 122 -4.6049337834119797e-04</internalNodes>
          <leafValues>
            -7.3908984661102295e-01 1.6903075575828552e-01</leafValues></_>
        <_>
          <internalNodes>
            0 -1 35 1.0327318310737610e-01</internalNodes>
          <leafValues>
            -2.0988216996192932e-01 7.3743194341659546e-01</leafValues></_>
        <_>
          <internalNodes>
            0 -1 128 3.5982378904009238e-05</internalNodes>
          <leafValues>
            -4.5458266139030457e-01 3.5271522402763367e-01</leafValues></_>
        <_>
          <internalNodes>
            0 -1 137 3.7621380761265755e-04</internalNodes>
          <leafValues>
            -4.4626066088676453e-01 3.6457723379135132e-01</leafValues></_></weakClassifiers></_>
    <!-- stage 19 -->
    <_>
      <maxWeakCount>12</maxWeakCount>
      <stageThreshold>-7.3127430677413940e-01</stageThreshold>
      <weakClassifiers>
        <_>
          <internalNodes>
            0 -1 87 5.3361305617727339e-05</internalNodes>
          <leafValues>
            -5.3623187541961670e-01 5.5905508995056152e-01</leafValues></_>
        <_>
          <internalNodes>
            0 -1 105 -3.0310242436826229e-03</internalNodes>
          <leafValues>
            3.7472227215766907e-01 -4.1430670022964478e-01</leafValues></_>
        <_>
          <internalNodes>
            0 -1 83 -4.5513110235333443e-03</internalNodes>
          <leafValues>
            3.3358219265937805e-01 -4.9184823036193848e-01</leafValues></_>
        <_>
          <internalNodes>
            0 -1 28 -2.2823119163513184e-01</internalNodes>
          <leafValues>
            8.2770407199859619e-01 -2.0043008029460907e-01</leafValues></_>
        <_>
          <internalNodes>
            0 -1 10 4.3286655098199844e-02</internalNodes>
          <leafValues>
            -3.8387012481689453e-01 4.4221752882003784e-01</leafValues></_>
        <_>
          <internalNodes>
            0 -1 113 8.8330404832959175e-03</internalNodes>
          <leafValues>
            1.5446308255195618e-01 -8.8267219066619873e-01</leafValues></_>
        <_>
          <internalNodes>
            0 -1 82 1.3308400288224220e-02</internalNodes>
          <leafValues>
            -6.7379325628280640e-01 1.5962843596935272e-01</leafValues></_>
        <_>
          <internalNodes>
            0 -1 85 4.3000601232051849e-02</internalNodes>
          <leafValues>
            1.4077688753604889e-01 -7.4220418930053711e-01</leafValues></_>
        <_>
          <internalNodes>
            0 -1 26 1.8945387005805969e-01</internalNodes>
          <leafValues>
            -2.5491529703140259e-01 5.3385794162750244e-01</leafValues></_>
        <_>
          <internalNodes>
            0 -1 30 4.2594159021973610e-03</internalNodes>
          <leafValues>
            -4.4280630350112915e-01 3.7540629506111145e-01</leafValues></_>
        <_>
          <internalNodes>
            0 -1 127 -5.9323734603822231e-04</internalNodes>
          <leafValues>
            2.3492892086505890e-01 -5.3727310895919800e-01</leafValues></_>
        <_>
          <internalNodes>
            0 -1 136 -1.3792586978524923e-03</internalNodes>
          <leafValues>
            3.8107833266258240e-01 -3.5862430930137634e-01</leafValues></_></weakClassifiers></_></stages>
  <features>
    <_>
      <rects>
        <_>
          0 0 3 15 -1.</_>
        <_>
          1 0 1 15 3.</_></rects>
      <tilted>0</tilted></_>
    <_>
      <rects>
        <_>
          0 0 3 23 -1.</_>
        <_>
          1 0 1 23 3.</_></rects>
      <tilted>0</tilted></_>
    <_>
      <rects>
        <_>
          0 0 12 3 -1.</_>
        <_>
          0 1 12 1 3.</_></rects>
      <tilted>0</tilted></_>
    <_>
      <rects>
        <_>
          0 0 19 2 -1.</_>
        <_>
          0 1 19 1 2.</_></rects>
      <tilted>0</tilted></_>
    <_>
      <rects>
        <_>
          0 1 1 2 -1.</_>
        <_>
          0 2 1 1 2.</_></rects>
      <tilted>0</tilted></_>
    <_>
      <rects>
        <_>
          0 1 1 3 -1.</_>
        <_>
          0 2 1 1 3.</_></rects>
      <tilted>0</tilted></_>
    <_>
      <rects>
        <_>
          0 1 24 5 -1.</_>
        <_>
          8 1 8 5 3.</_></rects>
      <tilted>0</tilted></_>
    <_>
      <rects>
        <_>
          0 1 24 22 -1.</_>
        <_>
          8 1 8 22 3.</_></rects>
      <tilted>0</tilted></_>
    <_>
      <rects>
        <_>
          0 2 10 15 -1.</_>
        <_>
          5 2 5 15 2.</_></rects>
      <tilted>0</tilted></_>
    <_>
      <rects>
        <_>
          0 4 1 6 -1.</_>
        <_>
          0 7 1 3 2.</_></rects>
      <tilted>0</tilted></_>
    <_>
      <rects>
        <_>
          0 4 6 11 -1.</_>
        <_>
          3 4 3 11 2.</_></rects>
      <tilted>0</tilted></_>
    <_>
      <rects>
        <_>
          0 4 8 2 -1.</_>
        <_>
          4 4 4 2 2.</_></rects>
      <tilted>0</tilted></_>
    <_>
      <rects>
        <_>
          0 4 24 1 -1.</_>
        <_>
          8 4 8 1 3.</_></rects>
      <tilted>0</tilted></_>
    <_>
      <rects>
        <_>
          0 4 24 2 -1.</_>
        <_>
          8 4 8 2 3.</_></rects>
      <tilted>0</tilted></_>
    <_>
      <rects>
        <_>
          0 5 8 13 -1.</_>
        <_>
          4 5 4 13 2.</_></rects>
      <tilted>0</tilted></_>
    <_>
      <rects>
        <_>
          0 5 10 6 -1.</_>
        <_>
          0 5 5 3 2.</_>
        <_>
          5 8 5 3 2.</_></rects>
      <tilted>0</tilted></_>
    <_>
      <rects>
        <_>
          0 7 1 16 -1.</_>
        <_>
          0 15 1 8 2.</_></rects>
      <tilted>0</tilted></_>
    <_>
      <rects>
        <_>
          0 7 2 17 -1.</_>
        <_>
          1 7 1 17 2.</_></rects>
      <tilted>0</tilted></_>
    <_>
      <rects>
        <_>
          0 8 2 16 -1.</_>
        <_>
          1 8 1 16 2.</_></rects>
      <tilted>0</tilted></_>
    <_>
      <rects>
        <_>
          0 9 11 9 -1.</_>
        <_>
          0 12 11 3 3.</_></rects>
      <tilted>0</tilted></_>
    <_>
      <rects>
        <_>
          0 10 6 6 -1.</_>
        <_>
          3 10 3 6 2.</_></rects>
      <tilted>0</tilted></_>
    <_>
      <rects>
        <_>
          0 11 2 13 -1.</_>
        <_>
          1 11 1 13 2.</_></rects>
      <tilted>0</tilted></_>
    <_>
      <rects>
        <_>
          0 13 1 4 -1.</_>
        <_>
          0 15 1 2 2.</_></rects>
      <tilted>0</tilted></_>
    <_>
      <rects>
        <_>
          0 13 2 10 -1.</_>
        <_>
          1 13 1 10 2.</_></rects>
      <tilted>0</tilted></_>
    <_>
      <rects>
        <_>
          0 13 2 11 -1.</_>
        <_>
          1 13 1 11 2.</_></rects>
      <tilted>0</tilted></_>
    <_>
      <rects>
        <_>
          0 13 12 2 -1.</_>
        <_>
          4 13 4 2 3.</_></rects>
      <tilted>0</tilted></_>
    <_>
      <rects>
        <_>
          0 13 24 11 -1.</_>
        <_>
          8 13 8 11 3.</_></rects>
      <tilted>0</tilted></_>
    <_>
      <rects>
        <_>
          0 14 2 9 -1.</_>
        <_>
          1 14 1 9 2.</_></rects>
      <tilted>0</tilted></_>
    <_>
      <rects>
        <_>
          0 14 24 10 -1.</_>
        <_>
          8 14 8 10 3.</_></rects>
      <tilted>0</tilted></_>
    <_>
      <rects>
        <_>
          0 15 1 2 -1.</_>
        <_>
          0 16 1 1 2.</_></rects>
      <tilted>0</tilted></_>
    <_>
      <rects>
        <_>
          0 15 3 6 -1.</_>
        <_>
          1 15 1 6 3.</_></rects>
      <tilted>0</tilted></_>
    <_>
      <rects>
        <_>
          0 16 2 4 -1.</_>
        <_>
          1 16 1 4 2.</_></rects>
      <tilted>0</tilted></_>
    <_>
      <rects>
        <_>
          0 19 1 3 -1.</_>
        <_>
          0 20 1 1 3.</_></rects>
      <tilted>0</tilted></_>
    <_>
      <rects>
        <_>
          0 19 3 5 -1.</_>
        <_>
          1 19 1 5 3.</_></rects>
      <tilted>0</tilted></_>
    <_>
      <rects>
        <_>
          0 20 3 4 -1.</_>
        <_>
          1 20 1 4 3.</_></rects>
      <tilted>0</tilted></_>
    <_>
      <rects>
        <_>
          0 20 24 3 -1.</_>
        <_>
          8 20 8 3 3.</_></rects>
      <tilted>0</tilted></_>
    <_>
      <rects>
        <_>
          0 21 17 3 -1.</_>
        <_>
          0 22 17 1 3.</_></rects>
      <tilted>0</tilted></_>
    <_>
      <rects>
        <_>
          0 22 12 2 -1.</_>
        <_>
          0 23 12 1 2.</_></rects>
      <tilted>0</tilted></_>
    <_>
      <rects>
        <_>
          0 22 19 2 -1.</_>
        <_>
          0 23 19 1 2.</_></rects>
      <tilted>0</tilted></_>
    <_>
      <rects>
        <_>
          0 23 3 1 -1.</_>
        <_>
          1 23 1 1 3.</_></rects>
      <tilted>0</tilted></_>
    <_>
      <rects>
        <_>
          1 0 15 6 -1.</_>
        <_>
          1 3 15 3 2.</_></rects>
      <tilted>0</tilted></_>
    <_>
      <rects>
        <_>
          1 7 21 6 -1.</_>
        <_>
          1 10 21 3 2.</_></rects>
      <tilted>0</tilted></_>
    <_>
      <rects>
        <_>
          1 14 21 10 -1.</_>
        <_>
          8 14 7 10 3.</_></rects>
      <tilted>0</tilted></_>
    <_>
      <rects>
        <_>
          1 20 21 4 -1.</_>
        <_>
          8 20 7 4 3.</_></rects>
      <tilted>0</tilted></_>
    <_>
      <rects>
        <_>
          1 22 10 2 -1.</_>
        <_>
          1 23 10 1 2.</_></rects>
      <tilted>0</tilted></_>
    <_>
      <rects>
        <_>
          2 0 6 8 -1.</_>
        <_>
          2 4 6 4 2.</_></rects>
      <tilted>0</tilted></_>
    <_>
      <rects>
        <_>
          2 0 15 6 -1.</_>
        <_>
          2 3 15 3 2.</_></rects>
      <tilted>0</tilted></_>
    <_>
      <rects>
        <_>
          2 2 8 10 -1.</_>
        <_>
          2 2 4 5 2.</_>
        <_>
          6 7 4 5 2.</_></rects>
      <tilted>0</tilted></_>
    <_>
      <rects>
        <_>
          2 3 8 8 -1.</_>
        <_>
          2 3 4 4 2.</_>
        <_>
          6 7 4 4 2.</_></rects>
      <tilted>0</tilted></_>
    <_>
      <rects>
        <_>
          2 4 8 6 -1.</_>
        <_>
          2 4 4 3 2.</_>
        <_>
          6 7 4 3 2.</_></rects>
      <tilted>0</tilted></_>
    <_>
      <rects>
        <_>
          2 8 18 6 -1.</_>
        <_>
          2 11 18 3 2.</_></rects>
      <tilted>0</tilted></_>
    <_>
      <rects>
        <_>
          2 22 19 2 -1.</_>
        <_>
          2 23 19 1 2.</_></rects>
      <tilted>0</tilted></_>
    <_>
      <rects>
        <_>
          2 22 20 2 -1.</_>
        <_>
          2 23 20 1 2.</_></rects>
      <tilted>0</tilted></_>
    <_>
      <rects>
        <_>
          3 8 5 9 -1.</_>
        <_>
          3 11 5 3 3.</_></rects>
      <tilted>0</tilted></_>
    <_>
      <rects>
        <_>
          4 0 20 2 -1.</_>
        <_>
          4 1 20 1 2.</_></rects>
      <tilted>0</tilted></_>
    <_>
      <rects>
        <_>
          4 8 16 12 -1.</_>
        <_>
          4 12 16 4 3.</_></rects>
      <tilted>0</tilted></_>
    <_>
      <rects>
        <_>
          4 10 4 4 -1.</_>
        <_>
          4 10 2 2 2.</_>
        <_>
          6 12 2 2 2.</_></rects>
      <tilted>0</tilted></_>
    <_>
      <rects>
        <_>
          4 11 14 2 -1.</_>
        <_>
          4 12 14 1 2.</_></rects>
      <tilted>0</tilted></_>
    <_>
      <rects>
        <_>
          5 0 7 9 -1.</_>
        <_>
          5 3 7 3 3.</_></rects>
      <tilted>0</tilted></_>
    <_>
      <rects>
        <_>
          5 2 2 8 -1.</_>
        <_>
          5 2 1 4 2.</_>
        <_>
          6 6 1 4 2.</_></rects>
      <tilted>0</tilted></_>
    <_>
      <rects>
        <_>
          5 5 3 18 -1.</_>
        <_>
          5 11 3 6 3.</_></rects>
      <tilted>0</tilted></_>
    <_>
      <rects>
        <_>
          5 5 15 9 -1.</_>
        <_>
          10 5 5 9 3.</_></rects>
      <tilted>0</tilted></_>
    <_>
      <rects>
        <_>
          5 6 3 15 -1.</_>
        <_>
          5 11 3 5 3.</_></rects>
      <tilted>0</tilted></_>
    <_>
      <rects>
        <_>
          5 7 16 12 -1.</_>
        <_>
          5 11 16 4 3.</_></rects>
      <tilted>0</tilted></_>
    <_>
      <rects>
        <_>
          5 13 6 2 -1.</_>
        <_>
          8 13 3 2 2.</_></rects>
      <tilted>0</tilted></_>
    <_>
      <rects>
        <_>
          5 13 13 10 -1.</_>
        <_>
          5 18 13 5 2.</_></rects>
      <tilted>0</tilted></_>
    <_>
      <rects>
        <_>
          5 17 4 2 -1.</_>
        <_>
          7 17 2 2 2.</_></rects>
      <tilted>0</tilted></_>
    <_>
      <rects>
        <_>
          5 22 19 2 -1.</_>
        <_>
          5 23 19 1 2.</_></rects>
      <tilted>0</tilted></_>
    <_>
      <rects>
        <_>
          6 0 12 12 -1.</_>
        <_>
          10 0 4 12 3.</_></rects>
      <tilted>0</tilted></_>
    <_>
      <rects>
        <_>
          6 0 6 2 -1.</_>
        <_>
          6 1 6 1 2.</_></rects>
      <tilted>0</tilted></_>
    <_>
      <rects>
        <_>
          6 0 10 2 -1.</_>
        <_>
          6 1 10 1 2.</_></rects>
      <tilted>0</tilted></_>
    <_>
      <rects>
        <_>
          6 4 10 9 -1.</_>
        <_>
          6 7 10 3 3.</_></rects>
      <tilted>0</tilted></_>
    <_>
      <rects>
        <_>
          6 6 12 5 -1.</_>
        <_>
          10 6 4 5 3.</_></rects>
      <tilted>0</tilted></_>
    <_>
      <rects>
        <_>
          6 21 14 3 -1.</_>
        <_>
          6 22 14 1 3.</_></rects>
      <tilted>0</tilted></_>
    <_>
      <rects>
        <_>
          7 0 2 4 -1.</_>
        <_>
          7 2 2 2 2.</_></rects>
      <tilted>0</tilted></_>
    <_>
      <rects>
        <_>
          7 0 10 1 -1.</_>
        <_>
          12 0 5 1 2.</_></rects>
      <tilted>0</tilted></_>
    <_>
      <rects>
        <_>
          7 3 9 9 -1.</_>
        <_>
          7 6 9 3 3.</_></rects>
      <tilted>0</tilted></_>
    <_>
      <rects>
        <_>
          7 4 6 16 -1.</_>
        <_>
          7 4 3 8 2.</_>
        <_>
          10 12 3 8 2.</_></rects>
      <tilted>0</tilted></_>
    <_>
      <rects>
        <_>
          7 4 12 9 -1.</_>
        <_>
          7 7 12 3 3.</_></rects>
      <tilted>0</tilted></_>
    <_>
      <rects>
        <_>
          7 6 6 5 -1.</_>
        <_>
          10 6 3 5 2.</_></rects>
      <tilted>0</tilted></_>
    <_>
      <rects>
        <_>
          7 6 11 6 -1.</_>
        <_>
          7 8 11 2 3.</_></rects>
      <tilted>0</tilted></_>
    <_>
      <rects>
        <_>
          7 8 4 8 -1.</_>
        <_>
          7 12 4 4 2.</_></rects>
      <tilted>0</tilted></_>
    <_>
      <rects>
        <_>
          7 8 10 8 -1.</_>
        <_>
          7 12 10 4 2.</_></rects>
      <tilted>0</tilted></_>
    <_>
      <rects>
        <_>
          7 22 6 2 -1.</_>
        <_>
          7 23 6 1 2.</_></rects>
      <tilted>0</tilted></_>
    <_>
      <rects>
        <_>
          8 0 14 3 -1.</_>
        <_>
          8 1 14 1 3.</_></rects>
      <tilted>0</tilted></_>
    <_>
      <rects>
        <_>
          8 6 7 14 -1.</_>
        <_>
          8 13 7 7 2.</_></rects>
      <tilted>0</tilted></_>
    <_>
      <rects>
        <_>
          8 11 7 12 -1.</_>
        <_>
          8 15 7 4 3.</_></rects>
      <tilted>0</tilted></_>
    <_>
      <rects>
        <_>
          9 0 1 2 -1.</_>
        <_>
          9 1 1 1 2.</_></rects>
      <tilted>0</tilted></_>
    <_>
      <rects>
        <_>
          9 5 6 7 -1.</_>
        <_>
          11 5 2 7 3.</_></rects>
      <tilted>0</tilted></_>
    <_>
      <rects>
        <_>
          9 7 4 16 -1.</_>
        <_>
          9 7 2 8 2.</_>
        <_>
          11 15 2 8 2.</_></rects>
      <tilted>0</tilted></_>
    <_>
      <rects>
        <_>
          9 7 5 12 -1.</_>
        <_>
          9 13 5 6 2.</_></rects>
      <tilted>0</tilted></_>
    <_>
      <rects>
        <_>
          9 8 6 5 -1.</_>
        <_>
          11 8 2 5 3.</_></rects>
      <tilted>0</tilted></_>
    <_>
      <rects>
        <_>
          9 9 15 12 -1.</_>
        <_>
          9 13 15 4 3.</_></rects>
      <tilted>0</tilted></_>
    <_>
      <rects>
        <_>
          9 22 7 2 -1.</_>
        <_>
          9 23 7 1 2.</_></rects>
      <tilted>0</tilted></_>
    <_>
      <rects>
        <_>
          10 0 6 1 -1.</_>
        <_>
          12 0 2 1 3.</_></rects>
      <tilted>0</tilted></_>
    <_>
      <rects>
        <_>
          10 15 10 1 -1.</_>
        <_>
          15 15 5 1 2.</_></rects>
      <tilted>0</tilted></_>
    <_>
      <rects>
        <_>
          11 0 3 1 -1.</_>
        <_>
          12 0 1 1 3.</_></rects>
      <tilted>0</tilted></_>
    <_>
      <rects>
        <_>
          11 0 6 2 -1.</_>
        <_>
          11 1 6 1 2.</_></rects>
      <tilted>0</tilted></_>
    <_>
      <rects>
        <_>
          11 3 6 8 -1.</_>
        <_>
          14 3 3 8 2.</_></rects>
      <tilted>0</tilted></_>
    <_>
      <rects>
        <_>
          11 5 6 16 -1.</_>
        <_>
          11 5 3 8 2.</_>
        <_>
          14 13 3 8 2.</_></rects>
      <tilted>0</tilted></_>
    <_>
      <rects>
        <_>
          11 8 4 10 -1.</_>
        <_>
          11 8 2 5 2.</_>
        <_>
          13 13 2 5 2.</_></rects>
      <tilted>0</tilted></_>
    <_>
      <rects>
        <_>
          11 9 6 1 -1.</_>
        <_>
          14 9 3 1 2.</_></rects>
      <tilted>0</tilted></_>
    <_>
      <rects>
        <_>
          11 9 11 9 -1.</_>
        <_>
          11 12 11 3 3.</_></rects>
      <tilted>0</tilted></_>
    <_>
      <rects>
        <_>
          12 0 1 2 -1.</_>
        <_>
          12 1 1 1 2.</_></rects>
      <tilted>0</tilted></_>
    <_>
      <rects>
        <_>
          12 0 3 1 -1.</_>
        <_>
          13 0 1 1 3.</_></rects>
      <tilted>0</tilted></_>
    <_>
      <rects>
        <_>
          12 0 4 10 -1.</_>
        <_>
          12 0 2 5 2.</_>
        <_>
          14 5 2 5 2.</_></rects>
      <tilted>0</tilted></_>
    <_>
      <rects>
        <_>
          12 5 4 6 -1.</_>
        <_>
          12 7 4 2 3.</_></rects>
      <tilted>0</tilted></_>
    <_>
      <rects>
        <_>
          12 9 2 2 -1.</_>
        <_>
          12 10 2 1 2.</_></rects>
      <tilted>0</tilted></_>
    <_>
      <rects>
        <_>
          12 10 5 2 -1.</_>
        <_>
          12 11 5 1 2.</_></rects>
      <tilted>0</tilted></_>
    <_>
      <rects>
        <_>
          12 12 12 3 -1.</_>
        <_>
          16 12 4 3 3.</_></rects>
      <tilted>0</tilted></_>
    <_>
      <rects>
        <_>
          12 14 6 1 -1.</_>
        <_>
          15 14 3 1 2.</_></rects>
      <tilted>0</tilted></_>
    <_>
      <rects>
        <_>
          13 8 2 1 -1.</_>
        <_>
          14 8 1 1 2.</_></rects>
      <tilted>0</tilted></_>
    <_>
      <rects>
        <_>
          13 9 7 6 -1.</_>
        <_>
          13 11 7 2 3.</_></rects>
      <tilted>0</tilted></_>
    <_>
      <rects>
        <_>
          13 20 10 3 -1.</_>
        <_>
          13 21 10 1 3.</_></rects>
      <tilted>0</tilted></_>
    <_>
      <rects>
        <_>
          13 22 11 2 -1.</_>
        <_>
          13 23 11 1 2.</_></rects>
      <tilted>0</tilted></_>
    <_>
      <rects>
        <_>
          14 0 2 1 -1.</_>
        <_>
          15 0 1 1 2.</_></rects>
      <tilted>0</tilted></_>
    <_>
      <rects>
        <_>
          14 0 3 1 -1.</_>
        <_>
          15 0 1 1 3.</_></rects>
      <tilted>0</tilted></_>
    <_>
      <rects>
        <_>
          14 0 2 6 -1.</_>
        <_>
          14 3 2 3 2.</_></rects>
      <tilted>0</tilted></_>
    <_>
      <rects>
        <_>
          14 4 8 8 -1.</_>
        <_>
          14 4 4 4 2.</_>
        <_>
          18 8 4 4 2.</_></rects>
      <tilted>0</tilted></_>
    <_>
      <rects>
        <_>
          14 5 10 2 -1.</_>
        <_>
          19 5 5 2 2.</_></rects>
      <tilted>0</tilted></_>
    <_>
      <rects>
        <_>
          14 22 5 2 -1.</_>
        <_>
          14 23 5 1 2.</_></rects>
      <tilted>0</tilted></_>
    <_>
      <rects>
        <_>
          15 0 2 1 -1.</_>
        <_>
          16 0 1 1 2.</_></rects>
      <tilted>0</tilted></_>
    <_>
      <rects>
        <_>
          15 0 3 1 -1.</_>
        <_>
          16 0 1 1 3.</_></rects>
      <tilted>0</tilted></_>
    <_>
      <rects>
        <_>
          15 0 8 3 -1.</_>
        <_>
          15 1 8 1 3.</_></rects>
      <tilted>0</tilted></_>
    <_>
      <rects>
        <_>
          15 1 6 10 -1.</_>
        <_>
          15 1 3 5 2.</_>
        <_>
          18 6 3 5 2.</_></rects>
      <tilted>0</tilted></_>
    <_>
      <rects>
        <_>
          16 0 2 16 -1.</_>
        <_>
          16 0 1 8 2.</_>
        <_>
          17 8 1 8 2.</_></rects>
      <tilted>0</tilted></_>
    <_>
      <rects>
        <_>
          16 0 8 21 -1.</_>
        <_>
          20 0 4 21 2.</_></rects>
      <tilted>0</tilted></_>
    <_>
      <rects>
        <_>
          16 9 6 4 -1.</_>
        <_>
          16 9 3 2 2.</_>
        <_>
          19 11 3 2 2.</_></rects>
      <tilted>0</tilted></_>
    <_>
      <rects>
        <_>
          17 9 2 1 -1.</_>
        <_>
          18 9 1 1 2.</_></rects>
      <tilted>0</tilted></_>
    <_>
      <rects>
        <_>
          18 5 6 11 -1.</_>
        <_>
          21 5 3 11 2.</_></rects>
      <tilted>0</tilted></_>
    <_>
      <rects>
        <_>
          21 0 3 13 -1.</_>
        <_>
          22 0 1 13 3.</_></rects>
      <tilted>0</tilted></_>
    <_>
      <rects>
        <_>
          21 12 3 11 -1.</_>
        <_>
          22 12 1 11 3.</_></rects>
      <tilted>0</tilted></_>
    <_>
      <rects>
        <_>
          21 16 3 8 -1.</_>
        <_>
          22 16 1 8 3.</_></rects>
      <tilted>0</tilted></_>
    <_>
      <rects>
        <_>
          21 20 3 4 -1.</_>
        <_>
          22 20 1 4 3.</_></rects>
      <tilted>0</tilted></_>
    <_>
      <rects>
        <_>
          22 9 2 7 -1.</_>
        <_>
          23 9 1 7 2.</_></rects>
      <tilted>0</tilted></_>
    <_>
      <rects>
        <_>
          22 9 2 15 -1.</_>
        <_>
          23 9 1 15 2.</_></rects>
      <tilted>0</tilted></_>
    <_>
      <rects>
        <_>
          22 13 2 2 -1.</_>
        <_>
          23 13 1 2 2.</_></rects>
      <tilted>0</tilted></_>
    <_>
      <rects>
        <_>
          23 21 1 3 -1.</_>
        <_>
          23 22 1 1 3.</_></rects>
      <tilted>0</tilted></_></features></cascade>
</opencv_storage>
