<?xml version="1.0"?>
<opencv_storage>
<cascade>
  <stageType>BOOST</stageType>
  <featureType>HAAR</featureType>
  <height>24</height>
  <width>24</width>
  <stageParams>
    <boostType>GAB</boostType>
    <minHitRate>9.9500000476837158e-01</minHitRate>
    <maxFalseAlarm>5.0000000000000000e-01</maxFalseAlarm>
    <weightTrimRate>9.4999998807907104e-01</weightTrimRate>
    <maxDepth>1</maxDepth>
    <maxWeakCount>100</maxWeakCount></stageParams>
  <featureParams>
    <maxCatCount>0</maxCatCount>
    <featSize>1</featSize>
    <mode>BASIC</mode></featureParams>
  <stageNum>20</stageNum>
  <stages>
    <!-- stage 0 -->
    <_>
      <maxWeakCount>4</maxWeakCount>
      <stageThreshold>9.6228130161762238e-02</stageThreshold>
      <weakClassifiers>
        <_>
          <internalNodes>
            0 -1 25 1.6743785818107426e-04</internalNodes>
          <leafValues>
            -1.7543859779834747e-02 9.6825397014617920e-01</leafValues></_>
        <_>
          <internalNodes>
            0 -1 40 1.3978670722281095e-05</internalNodes>
          <leafValues>
            -1.8963421881198883e-01 1.</leafValues></_>
        <_>
          <internalNodes>
            0 -1 6 1.3032230526732747e-05</internalNodes>
          <leafValues>
            -3.9867866039276123e-01 8.8481891155242920e-01</leafValues></_>
        <_>
          <internalNodes>
            0 -1 67 7.8543950803577900e-04</internalNodes>
          <leafValues>
            -4.8754936456680298e-01 8.3182042837142944e-01</leafValues></_></weakClassifiers></_>
    <!-- stage 1 -->
    <_>
      <maxWeakCount>4</maxWeakCount>
      <stageThreshold>-1.2726823985576630e-01</stageThreshold>
      <weakClassifiers>
        <_>
          <internalNodes>
            0 -1 17 -5.5186008103191853e-04</internalNodes>
          <leafValues>
            -6.3829787075519562e-02 8.6301368474960327e-01</leafValues></_>
        <_>
          <internalNodes>
            0 -1 3 1.5957635696395300e-05</internalNodes>
          <leafValues>
            -3.0923956632614136e-01 8.5112643241882324e-01</leafValues></_>
        <_>
          <internalNodes>
            0 -1 50 1.5165684744715691e-03</internalNodes>
          <leafValues>
            -3.4564426541328430e-01 8.4445840120315552e-01</leafValues></_>
        <_>
          <internalNodes>
            0 -1 18 6.4604938961565495e-04</internalNodes>
          <leafValues>
            -3.3539810776710510e-01 9.4309139251708984e-01</leafValues></_></weakClassifiers></_>
    <!-- stage 2 -->
    <_>
      <maxWeakCount>4</maxWeakCount>
      <stageThreshold>2.6493316888809204e-01</stageThreshold>
      <weakClassifiers>
        <_>
          <internalNodes>
            0 -1 71 3.1099082902073860e-02</internalNodes>
          <leafValues>
            6.9230771064758301e-01 -7.5000000000000000e-01</leafValues></_>
        <_>
          <internalNodes>
            0 -1 7 -2.3216013796627522e-03</internalNodes>
          <leafValues>
            -6.0708385705947876e-01 6.7586517333984375e-01</leafValues></_>
        <_>
          <internalNodes>
            0 -1 31 2.7225473895668983e-03</internalNodes>
          <leafValues>
            -5.2255839109420776e-01 8.5086423158645630e-01</leafValues></_>
        <_>
          <internalNodes>
            0 -1 53 -1.2920994777232409e-03</internalNodes>
          <leafValues>
            -5.1179623603820801e-01 8.0182987451553345e-01</leafValues></_></weakClassifiers></_>
    <!-- stage 3 -->
    <_>
      <maxWeakCount>5</maxWeakCount>
      <stageThreshold>6.4398491382598877e-01</stageThreshold>
      <weakClassifiers>
        <_>
          <internalNodes>
            0 -1 74 2.1936362981796265e-01</internalNodes>
          <leafValues>
            6.2162160873413086e-01 -1.</leafValues></_>
        <_>
          <internalNodes>
            0 -1 76 3.4979733754880726e-05</internalNodes>
          <leafValues>
            -3.3825731277465820e-01 1.</leafValues></_>
        <_>
          <internalNodes>
            0 -1 70 -2.3650676012039185e-03</internalNodes>
          <leafValues>
            1. -3.3538621664047241e-01</leafValues></_>
        <_>
          <internalNodes>
            0 -1 63 -4.3205253314226866e-04</internalNodes>
          <leafValues>
            1. -3.0399316549301147e-01</leafValues></_>
        <_>
          <internalNodes>
            0 -1 68 6.8788621574640274e-03</internalNodes>
          <leafValues>
            -3.0396392941474915e-01 1.</leafValues></_></weakClassifiers></_>
    <!-- stage 4 -->
    <_>
      <maxWeakCount>6</maxWeakCount>
      <stageThreshold>4.0190199017524719e-01</stageThreshold>
      <weakClassifiers>
        <_>
          <internalNodes>
            0 -1 14 5.3623665124177933e-02</internalNodes>
          <leafValues>
            6.0714286565780640e-01 -1.</leafValues></_>
        <_>
          <internalNodes>
            0 -1 2 2.7796877548098564e-03</internalNodes>
          <leafValues>
            -2.6554435491561890e-01 1.</leafValues></_>
        <_>
          <internalNodes>
            0 -1 36 1.2532011605799198e-03</internalNodes>
          <leafValues>
            -2.6586198806762695e-01 9.7280460596084595e-01</leafValues></_>
        <_>
          <internalNodes>
            0 -1 35 -1.5694466128479689e-04</internalNodes>
          <leafValues>
            1. -2.5593572854995728e-01</leafValues></_>
        <_>
          <internalNodes>
            0 -1 47 -8.1363890785723925e-04</internalNodes>
          <leafValues>
            8.9598208665847778e-01 -3.5599178075790405e-01</leafValues></_>
        <_>
          <internalNodes>
            0 -1 21 6.7142117768526077e-03</internalNodes>
          <leafValues>
            -2.7417084574699402e-01 9.3809300661087036e-01</leafValues></_></weakClassifiers></_>
    <!-- stage 5 -->
    <_>
      <maxWeakCount>4</maxWeakCount>
      <stageThreshold>5.5615848302841187e-01</stageThreshold>
      <weakClassifiers>
        <_>
          <internalNodes>
            0 -1 72 9.8133515566587448e-03</internalNodes>
          <leafValues>
            6.3636362552642822e-01 -1.</leafValues></_>
        <_>
          <internalNodes>
            0 -1 61 -8.0441206693649292e-02</internalNodes>
          <leafValues>
            -6.0936713218688965e-01 6.2356680631637573e-01</leafValues></_>
        <_>
          <internalNodes>
            0 -1 77 -1.4769421250093728e-04</internalNodes>
          <leafValues>
            1. -4.2880916595458984e-01</leafValues></_>
        <_>
          <internalNodes>
            0 -1 49 -2.8985968674533069e-04</internalNodes>
          <leafValues>
            1. -2.7496278285980225e-01</leafValues></_></weakClassifiers></_>
    <!-- stage 6 -->
    <_>
      <maxWeakCount>5</maxWeakCount>
      <stageThreshold>1.4973791316151619e-02</stageThreshold>
      <weakClassifiers>
        <_>
          <internalNodes>
            0 -1 12 5.9510208666324615e-02</internalNodes>
          <leafValues>
            6.1818182468414307e-01 -8.0000001192092896e-01</leafValues></_>
        <_>
          <internalNodes>
            0 -1 44 3.4844812034862116e-05</internalNodes>
          <leafValues>
            -2.7628633379936218e-01 1.</leafValues></_>
        <_>
          <internalNodes>
            0 -1 37 1.0609825840219855e-03</internalNodes>
          <leafValues>
            -4.4169616699218750e-01 7.0981127023696899e-01</leafValues></_>
        <_>
          <internalNodes>
            0 -1 75 -4.0771545172901824e-05</internalNodes>
          <leafValues>
            7.3596489429473877e-01 -5.2160638570785522e-01</leafValues></_>
        <_>
          <internalNodes>
            0 -1 29 -3.8640102138742805e-04</internalNodes>
          <leafValues>
            6.9892621040344238e-01 -5.1512658596038818e-01</leafValues></_></weakClassifiers></_>
    <!-- stage 7 -->
    <_>
      <maxWeakCount>4</maxWeakCount>
      <stageThreshold>2.6055255532264709e-01</stageThreshold>
      <weakClassifiers>
        <_>
          <internalNodes>
            0 -1 4 4.3487942218780518e-01</internalNodes>
          <leafValues>
            7.0588237047195435e-01 -6.6666668653488159e-01</leafValues></_>
        <_>
          <internalNodes>
            0 -1 15 -4.2663633823394775e-01</internalNodes>
          <leafValues>
            -9.1133159399032593e-01 4.7986024618148804e-01</leafValues></_>
        <_>
          <internalNodes>
            0 -1 62 -3.1042622867971659e-04</internalNodes>
          <leafValues>
            9.1467130184173584e-01 -4.3928939104080200e-01</leafValues></_>
        <_>
          <internalNodes>
            0 -1 69 1.2815316949854605e-05</internalNodes>
          <leafValues>
            -3.7582886219024658e-01 8.8664835691452026e-01</leafValues></_></weakClassifiers></_>
    <!-- stage 8 -->
    <_>
      <maxWeakCount>5</maxWeakCount>
      <stageThreshold>4.9217343330383301e-01</stageThreshold>
      <weakClassifiers>
        <_>
          <internalNodes>
            0 -1 26 2.3630298674106598e-01</internalNodes>
          <leafValues>
            6.3636362552642822e-01 -1.</leafValues></_>
        <_>
          <internalNodes>
            0 -1 60 -7.3965013143606484e-05</internalNodes>
          <leafValues>
            1. -2.8194156289100647e-01</leafValues></_>
        <_>
          <internalNodes>
            0 -1 78 1.3752050108450931e-05</internalNodes>
          <leafValues>
            -3.5527318716049194e-01 8.9404451847076416e-01</leafValues></_>
        <_>
          <internalNodes>
            0 -1 45 -4.4570202589966357e-05</internalNodes>
          <leafValues>
            1. -3.5455542802810669e-01</leafValues></_>
        <_>
          <internalNodes>
            0 -1 30 4.8728391993790865e-04</internalNodes>
          <leafValues>
            -4.0173771977424622e-01 9.8172175884246826e-01</leafValues></_></weakClassifiers></_>
    <!-- stage 9 -->
    <_>
      <maxWeakCount>3</maxWeakCount>
      <stageThreshold>2.5013679265975952e-01</stageThreshold>
      <weakClassifiers>
        <_>
          <internalNodes>
            0 -1 83 1.6523041995242238e-04</internalNodes>
          <leafValues>
            8.1333333253860474e-01 -2.2222222760319710e-02</leafValues></_>
        <_>
          <internalNodes>
            0 -1 80 4.2452587513253093e-04</internalNodes>
          <leafValues>
            -2.2851349413394928e-01 9.3522065877914429e-01</leafValues></_>
        <_>
          <internalNodes>
            0 -1 55 -4.3778162216767669e-04</internalNodes>
          <leafValues>
            8.3540171384811401e-01 -3.3468303084373474e-01</leafValues></_></weakClassifiers></_>
    <!-- stage 10 -->
    <_>
      <maxWeakCount>4</maxWeakCount>
      <stageThreshold>-5.0182205438613892e-01</stageThreshold>
      <weakClassifiers>
        <_>
          <internalNodes>
            0 -1 9 -5.7556456886231899e-04</internalNodes>
          <leafValues>
            -4.3999999761581421e-01 7.4736839532852173e-01</leafValues></_>
        <_>
          <internalNodes>
            0 -1 66 -1.9994258880615234e-02</internalNodes>
          <leafValues>
            -6.2114983797073364e-01 6.2829256057739258e-01</leafValues></_>
        <_>
          <internalNodes>
            0 -1 73 -2.6328745298087597e-03</internalNodes>
          <leafValues>
            8.4790813922882080e-01 -3.8182035088539124e-01</leafValues></_>
        <_>
          <internalNodes>
            0 -1 34 7.6600089669227600e-03</internalNodes>
          <leafValues>
            -3.0829426646232605e-01 9.0703475475311279e-01</leafValues></_></weakClassifiers></_>
    <!-- stage 11 -->
    <_>
      <maxWeakCount>4</maxWeakCount>
      <stageThreshold>1.7201252281665802e-01</stageThreshold>
      <weakClassifiers>
        <_>
          <internalNodes>
            0 -1 8 -1.1708028614521027e-01</internalNodes>
          <leafValues>
            -1. 6.5137612819671631e-01</leafValues></_>
        <_>
          <internalNodes>
            0 -1 58 1.8180173356086016e-04</internalNodes>
          <leafValues>
            7.4039375782012939e-01 -5.7259565591812134e-01</leafValues></_>
        <_>
          <internalNodes>
            0 -1 10 3.5777362063527107e-03</internalNodes>
          <leafValues>
            -4.6980544924736023e-01 8.1432062387466431e-01</leafValues></_>
        <_>
          <internalNodes>
            0 -1 52 -2.3153873917181045e-04</internalNodes>
          <leafValues>
            -6.1039721965789795e-01 5.6303751468658447e-01</leafValues></_></weakClassifiers></_>
    <!-- stage 12 -->
    <_>
      <maxWeakCount>5</maxWeakCount>
      <stageThreshold>1.0963701456785202e-01</stageThreshold>
      <weakClassifiers>
        <_>
          <internalNodes>
            0 -1 38 5.5994873400777578e-04</internalNodes>
          <leafValues>
            8.4210526943206787e-01 -9.0909093618392944e-02</leafValues></_>
        <_>
          <internalNodes>
            0 -1 5 -3.9834191557019949e-04</internalNodes>
          <leafValues>
            -4.2110404372215271e-01 7.5742012262344360e-01</leafValues></_>
        <_>
          <internalNodes>
            0 -1 11 4.2314059101045132e-03</internalNodes>
          <leafValues>
            -2.9170039296150208e-01 8.9092260599136353e-01</leafValues></_>
        <_>
          <internalNodes>
            0 -1 46 6.6420109942555428e-04</internalNodes>
          <leafValues>
            4.6487659215927124e-01 -7.2213810682296753e-01</leafValues></_>
        <_>
          <internalNodes>
            0 -1 87 -3.3557988354004920e-04</internalNodes>
          <leafValues>
            7.3530989885330200e-01 -4.7604984045028687e-01</leafValues></_></weakClassifiers></_>
    <!-- stage 13 -->
    <_>
      <maxWeakCount>4</maxWeakCount>
      <stageThreshold>1.5025630593299866e-01</stageThreshold>
      <weakClassifiers>
        <_>
          <internalNodes>
            0 -1 64 -5.6555238552391529e-04</internalNodes>
          <leafValues>
            -5.0000000000000000e-01 6.9999998807907104e-01</leafValues></_>
        <_>
          <internalNodes>
            0 -1 23 -2.6797447935678065e-04</internalNodes>
          <leafValues>
            -4.4861575961112976e-01 6.2809413671493530e-01</leafValues></_>
        <_>
          <internalNodes>
            0 -1 51 6.8436330184340477e-04</internalNodes>
          <leafValues>
            6.4824670553207397e-01 -5.1819252967834473e-01</leafValues></_>
        <_>
          <internalNodes>
            0 -1 82 8.1588071770966053e-04</internalNodes>
          <leafValues>
            5.8267903327941895e-01 -6.5964531898498535e-01</leafValues></_></weakClassifiers></_>
    <!-- stage 14 -->
    <_>
      <maxWeakCount>5</maxWeakCount>
      <stageThreshold>1.3840264081954956e-01</stageThreshold>
      <weakClassifiers>
        <_>
          <internalNodes>
            0 -1 27 -1.3059179764240980e-03</internalNodes>
          <leafValues>
            -2.8571429848670959e-01 7.3913043737411499e-01</leafValues></_>
        <_>
          <internalNodes>
            0 -1 41 1.5894470736384392e-02</internalNodes>
          <leafValues>
            -2.5202995538711548e-01 1.</leafValues></_>
        <_>
          <internalNodes>
            0 -1 13 -1.9226819858886302e-04</internalNodes>
          <leafValues>
            -4.7721666097640991e-01 5.8976095914840698e-01</leafValues></_>
        <_>
          <internalNodes>
            0 -1 88 -4.9413356464356184e-04</internalNodes>
          <leafValues>
            -5.5161255598068237e-01 6.9522672891616821e-01</leafValues></_>
        <_>
          <internalNodes>
            0 -1 56 5.7891802862286568e-03</internalNodes>
          <leafValues>
            -3.8684624433517456e-01 1.</leafValues></_></weakClassifiers></_>
    <!-- stage 15 -->
    <_>
      <maxWeakCount>5</maxWeakCount>
      <stageThreshold>-3.6586746573448181e-01</stageThreshold>
      <weakClassifiers>
        <_>
          <internalNodes>
            0 -1 24 9.9930688738822937e-03</internalNodes>
          <leafValues>
            6.8932038545608521e-01 -6.4705884456634521e-01</leafValues></_>
        <_>
          <internalNodes>
            0 -1 0 -3.9179595187306404e-03</internalNodes>
          <leafValues>
            -6.2193775177001953e-01 5.7385712862014771e-01</leafValues></_>
        <_>
          <internalNodes>
            0 -1 57 -2.8064274229109287e-03</internalNodes>
          <leafValues>
            -8.7320369482040405e-01 4.6786034107208252e-01</leafValues></_>
        <_>
          <internalNodes>
            0 -1 19 2.6584805920720100e-02</internalNodes>
          <leafValues>
            -4.9825239181518555e-01 8.4381562471389771e-01</leafValues></_>
        <_>
          <internalNodes>
            0 -1 48 -4.8755435273051262e-03</internalNodes>
          <leafValues>
            8.9579534530639648e-01 -4.0285804867744446e-01</leafValues></_></weakClassifiers></_>
    <!-- stage 16 -->
    <_>
      <maxWeakCount>4</maxWeakCount>
      <stageThreshold>-4.8075571656227112e-01</stageThreshold>
      <weakClassifiers>
        <_>
          <internalNodes>
            0 -1 43 5.8723464608192444e-02</internalNodes>
          <leafValues>
            7.1717172861099243e-01 -5.2380955219268799e-01</leafValues></_>
        <_>
          <internalNodes>
            0 -1 81 4.0626898407936096e-04</internalNodes>
          <leafValues>
            5.6248229742050171e-01 -5.8485126495361328e-01</leafValues></_>
        <_>
          <internalNodes>
            0 -1 20 -5.3281085565686226e-03</internalNodes>
          <leafValues>
            9.6462011337280273e-01 -3.1342396140098572e-01</leafValues></_>
        <_>
          <internalNodes>
            0 -1 32 1.9983113743364811e-03</internalNodes>
          <leafValues>
            -2.9965218901634216e-01 8.6774528026580811e-01</leafValues></_></weakClassifiers></_>
    <!-- stage 17 -->
    <_>
      <maxWeakCount>4</maxWeakCount>
      <stageThreshold>7.4588083662092686e-03</stageThreshold>
      <weakClassifiers>
        <_>
          <internalNodes>
            0 -1 16 6.6936056828126311e-04</internalNodes>
          <leafValues>
            1.3846154510974884e-01 9.2727273702621460e-01</leafValues></_>
        <_>
          <internalNodes>
            0 -1 33 2.5078438920900226e-04</internalNodes>
          <leafValues>
            -2.6381471753120422e-01 8.6927300691604614e-01</leafValues></_>
        <_>
          <internalNodes>
            0 -1 79 6.0796528123319149e-04</internalNodes>
          <leafValues>
            -2.4382868409156799e-01 1.</leafValues></_>
        <_>
          <internalNodes>
            0 -1 86 2.9308930606930517e-05</internalNodes>
          <leafValues>
            -4.1217049956321716e-01 6.8828397989273071e-01</leafValues></_></weakClassifiers></_>
    <!-- stage 18 -->
    <_>
      <maxWeakCount>5</maxWeakCount>
      <stageThreshold>2.2251121699810028e-01</stageThreshold>
      <weakClassifiers>
        <_>
          <internalNodes>
            0 -1 28 -3.1899780035018921e-02</internalNodes>
          <leafValues>
            -1. 6.3636362552642822e-01</leafValues></_>
        <_>
          <internalNodes>
            0 -1 39 -2.8544138185679913e-03</internalNodes>
          <leafValues>
            -3.0663204193115234e-01 8.7595826387405396e-01</leafValues></_>
        <_>
          <internalNodes>
            0 -1 65 -3.2294616103172302e-03</internalNodes>
          <leafValues>
            8.6932849884033203e-01 -4.4258660078048706e-01</leafValues></_>
        <_>
          <internalNodes>
            0 -1 22 1.4004775039211381e-05</internalNodes>
          <leafValues>
            -3.8496664166450500e-01 7.7698022127151489e-01</leafValues></_>
        <_>
          <internalNodes>
            0 -1 42 8.1220199353992939e-04</internalNodes>
          <leafValues>
            -4.4161400198936462e-01 7.9029035568237305e-01</leafValues></_></weakClassifiers></_>
    <!-- stage 19 -->
    <_>
      <maxWeakCount>5</maxWeakCount>
      <stageThreshold>3.1791126728057861e-01</stageThreshold>
      <weakClassifiers>
        <_>
          <internalNodes>
            0 -1 1 1.6917279362678528e-01</internalNodes>
          <leafValues>
            6.1818182468414307e-01 -8.0000001192092896e-01</leafValues></_>
        <_>
          <internalNodes>
            0 -1 54 1.7317112069576979e-03</internalNodes>
          <leafValues>
            -2.4336533248424530e-01 1.</leafValues></_>
        <_>
          <internalNodes>
            0 -1 85 -1.0114684300788213e-05</internalNodes>
          <leafValues>
            7.4453586339950562e-01 -4.1875904798507690e-01</leafValues></_>
        <_>
          <internalNodes>
            0 -1 84 1.5594936849083751e-04</internalNodes>
          <leafValues>
            -5.0594162940979004e-01 8.3662587404251099e-01</leafValues></_>
        <_>
          <internalNodes>
            0 -1 59 -1.3492609374225140e-02</internalNodes>
          <leafValues>
            1. -2.9549947381019592e-01</leafValues></_></weakClassifiers></_></stages>
  <features>
    <_>
      <rects>
        <_>
          0 0 8 3 -1.</_>
        <_>
          4 0 4 3 2.</_></rects>
      <tilted>0</tilted></_>
    <_>
      <rects>
        <_>
          0 0 24 7 -1.</_>
        <_>
          12 0 12 7 2.</_></rects>
      <tilted>0</tilted></_>
    <_>
      <rects>
        <_>
          0 0 24 4 -1.</_>
        <_>
          0 2 24 2 2.</_></rects>
      <tilted>0</tilted></_>
    <_>
      <rects>
        <_>
          0 1 5 2 -1.</_>
        <_>
          0 2 5 1 2.</_></rects>
      <tilted>0</tilted></_>
    <_>
      <rects>
        <_>
          0 3 20 18 -1.</_>
        <_>
          0 12 20 9 2.</_></rects>
      <tilted>0</tilted></_>
    <_>
      <rects>
        <_>
          0 4 3 4 -1.</_>
        <_>
          1 4 1 4 3.</_></rects>
      <tilted>0</tilted></_>
    <_>
      <rects>
        <_>
          0 6 6 1 -1.</_>
        <_>
          2 6 2 1 3.</_></rects>
      <tilted>0</tilted></_>
    <_>
      <rects>
        <_>
          0 7 1 12 -1.</_>
        <_>
          0 11 1 4 3.</_></rects>
      <tilted>0</tilted></_>
    <_>
      <rects>
        <_>
          0 18 18 6 -1.</_>
        <_>
          9 18 9 6 2.</_></rects>
      <tilted>0</tilted></_>
    <_>
      <rects>
        <_>
          1 0 4 1 -1.</_>
        <_>
          3 0 2 1 2.</_></rects>
      <tilted>0</tilted></_>
    <_>
      <rects>
        <_>
          1 7 6 5 -1.</_>
        <_>
          3 7 2 5 3.</_></rects>
      <tilted>0</tilted></_>
    <_>
      <rects>
        <_>
          1 8 17 3 -1.</_>
        <_>
          1 9 17 1 3.</_></rects>
      <tilted>0</tilted></_>
    <_>
      <rects>
        <_>
          1 13 10 9 -1.</_>
        <_>
          1 16 10 3 3.</_></rects>
      <tilted>0</tilted></_>
    <_>
      <rects>
        <_>
          1 20 1 2 -1.</_>
        <_>
          1 21 1 1 2.</_></rects>
      <tilted>0</tilted></_>
    <_>
      <rects>
        <_>
          2 0 22 2 -1.</_>
        <_>
          13 0 11 2 2.</_></rects>
      <tilted>0</tilted></_>
    <_>
      <rects>
        <_>
          2 2 22 22 -1.</_>
        <_>
          13 2 11 22 2.</_></rects>
      <tilted>0</tilted></_>
    <_>
      <rects>
        <_>
          2 3 3 17 -1.</_>
        <_>
          3 3 1 17 3.</_></rects>
      <tilted>0</tilted></_>
    <_>
      <rects>
        <_>
          2 3 2 4 -1.</_>
        <_>
          2 5 2 2 2.</_></rects>
      <tilted>0</tilted></_>
    <_>
      <rects>
        <_>
          2 7 3 2 -1.</_>
        <_>
          2 8 3 1 2.</_></rects>
      <tilted>0</tilted></_>
    <_>
      <rects>
        <_>
          2 7 10 12 -1.</_>
        <_>
          2 11 10 4 3.</_></rects>
      <tilted>0</tilted></_>
    <_>
      <rects>
        <_>
          2 9 6 8 -1.</_>
        <_>
          4 9 2 8 3.</_></rects>
      <tilted>0</tilted></_>
    <_>
      <rects>
        <_>
          2 15 21 4 -1.</_>
        <_>
          2 17 21 2 2.</_></rects>
      <tilted>0</tilted></_>
    <_>
      <rects>
        <_>
          2 16 2 2 -1.</_>
        <_>
          2 16 1 1 2.</_>
        <_>
          3 17 1 1 2.</_></rects>
      <tilted>0</tilted></_>
    <_>
      <rects>
        <_>
          2 21 9 1 -1.</_>
        <_>
          5 21 3 1 3.</_></rects>
      <tilted>0</tilted></_>
    <_>
      <rects>
        <_>
          3 0 18 1 -1.</_>
        <_>
          9 0 6 1 3.</_></rects>
      <tilted>0</tilted></_>
    <_>
      <rects>
        <_>
          3 4 1 8 -1.</_>
        <_>
          3 8 1 4 2.</_></rects>
      <tilted>0</tilted></_>
    <_>
      <rects>
        <_>
          3 7 16 17 -1.</_>
        <_>
          11 7 8 17 2.</_></rects>
      <tilted>0</tilted></_>
    <_>
      <rects>
        <_>
          3 20 6 4 -1.</_>
        <_>
          5 20 2 4 3.</_></rects>
      <tilted>0</tilted></_>
    <_>
      <rects>
        <_>
          3 20 21 4 -1.</_>
        <_>
          3 22 21 2 2.</_></rects>
      <tilted>0</tilted></_>
    <_>
      <rects>
        <_>
          4 2 4 12 -1.</_>
        <_>
          4 2 2 6 2.</_>
        <_>
          6 8 2 6 2.</_></rects>
      <tilted>0</tilted></_>
    <_>
      <rects>
        <_>
          4 5 12 2 -1.</_>
        <_>
          8 5 4 2 3.</_></rects>
      <tilted>0</tilted></_>
    <_>
      <rects>
        <_>
          4 7 12 4 -1.</_>
        <_>
          4 9 12 2 2.</_></rects>
      <tilted>0</tilted></_>
    <_>
      <rects>
        <_>
          4 8 3 10 -1.</_>
        <_>
          5 8 1 10 3.</_></rects>
      <tilted>0</tilted></_>
    <_>
      <rects>
        <_>
          4 10 3 4 -1.</_>
        <_>
          5 10 1 4 3.</_></rects>
      <tilted>0</tilted></_>
    <_>
      <rects>
        <_>
          5 2 19 6 -1.</_>
        <_>
          5 4 19 2 3.</_></rects>
      <tilted>0</tilted></_>
    <_>
      <rects>
        <_>
          5 6 2 2 -1.</_>
        <_>
          5 6 1 1 2.</_>
        <_>
          6 7 1 1 2.</_></rects>
      <tilted>0</tilted></_>
    <_>
      <rects>
        <_>
          5 6 3 9 -1.</_>
        <_>
          6 6 1 9 3.</_></rects>
      <tilted>0</tilted></_>
    <_>
      <rects>
        <_>
          5 8 2 9 -1.</_>
        <_>
          5 11 2 3 3.</_></rects>
      <tilted>0</tilted></_>
    <_>
      <rects>
        <_>
          5 21 6 2 -1.</_>
        <_>
          7 21 2 2 3.</_></rects>
      <tilted>0</tilted></_>
    <_>
      <rects>
        <_>
          6 1 15 5 -1.</_>
        <_>
          11 1 5 5 3.</_></rects>
      <tilted>0</tilted></_>
    <_>
      <rects>
        <_>
          6 5 1 2 -1.</_>
        <_>
          6 6 1 1 2.</_></rects>
      <tilted>0</tilted></_>
    <_>
      <rects>
        <_>
          6 6 12 9 -1.</_>
        <_>
          6 9 12 3 3.</_></rects>
      <tilted>0</tilted></_>
    <_>
      <rects>
        <_>
          6 8 4 3 -1.</_>
        <_>
          6 9 4 1 3.</_></rects>
      <tilted>0</tilted></_>
    <_>
      <rects>
        <_>
          6 14 12 10 -1.</_>
        <_>
          12 14 6 10 2.</_></rects>
      <tilted>0</tilted></_>
    <_>
      <rects>
        <_>
          6 15 3 3 -1.</_>
        <_>
          6 16 3 1 3.</_></rects>
      <tilted>0</tilted></_>
    <_>
      <rects>
        <_>
          6 17 2 2 -1.</_>
        <_>
          6 17 1 1 2.</_>
        <_>
          7 18 1 1 2.</_></rects>
      <tilted>0</tilted></_>
    <_>
      <rects>
        <_>
          7 0 6 1 -1.</_>
        <_>
          10 0 3 1 2.</_></rects>
      <tilted>0</tilted></_>
    <_>
      <rects>
        <_>
          7 9 3 3 -1.</_>
        <_>
          7 10 3 1 3.</_></rects>
      <tilted>0</tilted></_>
    <_>
      <rects>
        <_>
          7 9 9 4 -1.</_>
        <_>
          7 11 9 2 2.</_></rects>
      <tilted>0</tilted></_>
    <_>
      <rects>
        <_>
          7 11 2 2 -1.</_>
        <_>
          7 11 1 1 2.</_>
        <_>
          8 12 1 1 2.</_></rects>
      <tilted>0</tilted></_>
    <_>
      <rects>
        <_>
          7 14 9 3 -1.</_>
        <_>
          10 14 3 3 3.</_></rects>
      <tilted>0</tilted></_>
    <_>
      <rects>
        <_>
          7 18 4 2 -1.</_>
        <_>
          9 18 2 2 2.</_></rects>
      <tilted>0</tilted></_>
    <_>
      <rects>
        <_>
          7 20 1 2 -1.</_>
        <_>
          7 21 1 1 2.</_></rects>
      <tilted>0</tilted></_>
    <_>
      <rects>
        <_>
          8 0 11 6 -1.</_>
        <_>
          8 2 11 2 3.</_></rects>
      <tilted>0</tilted></_>
    <_>
      <rects>
        <_>
          8 4 6 11 -1.</_>
        <_>
          10 4 2 11 3.</_></rects>
      <tilted>0</tilted></_>
    <_>
      <rects>
        <_>
          8 9 2 12 -1.</_>
        <_>
          8 9 1 6 2.</_>
        <_>
          9 15 1 6 2.</_></rects>
      <tilted>0</tilted></_>
    <_>
      <rects>
        <_>
          8 14 8 4 -1.</_>
        <_>
          8 14 4 2 2.</_>
        <_>
          12 16 4 2 2.</_></rects>
      <tilted>0</tilted></_>
    <_>
      <rects>
        <_>
          8 22 8 2 -1.</_>
        <_>
          8 22 4 1 2.</_>
        <_>
          12 23 4 1 2.</_></rects>
      <tilted>0</tilted></_>
    <_>
      <rects>
        <_>
          9 0 3 1 -1.</_>
        <_>
          10 0 1 1 3.</_></rects>
      <tilted>0</tilted></_>
    <_>
      <rects>
        <_>
          9 4 12 11 -1.</_>
        <_>
          13 4 4 11 3.</_></rects>
      <tilted>0</tilted></_>
    <_>
      <rects>
        <_>
          9 12 2 2 -1.</_>
        <_>
          9 12 1 1 2.</_>
        <_>
          10 13 1 1 2.</_></rects>
      <tilted>0</tilted></_>
    <_>
      <rects>
        <_>
          10 6 10 12 -1.</_>
        <_>
          10 12 10 6 2.</_></rects>
      <tilted>0</tilted></_>
    <_>
      <rects>
        <_>
          10 13 8 2 -1.</_>
        <_>
          10 13 4 1 2.</_>
        <_>
          14 14 4 1 2.</_></rects>
      <tilted>0</tilted></_>
    <_>
      <rects>
        <_>
          10 17 1 3 -1.</_>
        <_>
          10 18 1 1 3.</_></rects>
      <tilted>0</tilted></_>
    <_>
      <rects>
        <_>
          10 22 2 2 -1.</_>
        <_>
          11 22 1 2 2.</_></rects>
      <tilted>0</tilted></_>
    <_>
      <rects>
        <_>
          11 0 1 12 -1.</_>
        <_>
          11 4 1 4 3.</_></rects>
      <tilted>0</tilted></_>
    <_>
      <rects>
        <_>
          11 4 6 18 -1.</_>
        <_>
          13 4 2 18 3.</_></rects>
      <tilted>0</tilted></_>
    <_>
      <rects>
        <_>
          11 5 10 3 -1.</_>
        <_>
          16 5 5 3 2.</_></rects>
      <tilted>0</tilted></_>
    <_>
      <rects>
        <_>
          11 8 9 6 -1.</_>
        <_>
          14 8 3 6 3.</_></rects>
      <tilted>0</tilted></_>
    <_>
      <rects>
        <_>
          12 4 3 3 -1.</_>
        <_>
          12 5 3 1 3.</_></rects>
      <tilted>0</tilted></_>
    <_>
      <rects>
        <_>
          12 9 6 4 -1.</_>
        <_>
          14 9 2 4 3.</_></rects>
      <tilted>0</tilted></_>
    <_>
      <rects>
        <_>
          13 0 10 6 -1.</_>
        <_>
          13 3 10 3 2.</_></rects>
      <tilted>0</tilted></_>
    <_>
      <rects>
        <_>
          13 2 11 2 -1.</_>
        <_>
          13 3 11 1 2.</_></rects>
      <tilted>0</tilted></_>
    <_>
      <rects>
        <_>
          13 3 6 6 -1.</_>
        <_>
          13 5 6 2 3.</_></rects>
      <tilted>0</tilted></_>
    <_>
      <rects>
        <_>
          15 1 8 16 -1.</_>
        <_>
          15 9 8 8 2.</_></rects>
      <tilted>0</tilted></_>
    <_>
      <rects>
        <_>
          15 14 3 3 -1.</_>
        <_>
          15 15 3 1 3.</_></rects>
      <tilted>0</tilted></_>
    <_>
      <rects>
        <_>
          16 2 2 3 -1.</_>
        <_>
          16 3 2 1 3.</_></rects>
      <tilted>0</tilted></_>
    <_>
      <rects>
        <_>
          16 11 2 2 -1.</_>
        <_>
          16 11 1 1 2.</_>
        <_>
          17 12 1 1 2.</_></rects>
      <tilted>0</tilted></_>
    <_>
      <rects>
        <_>
          17 2 2 2 -1.</_>
        <_>
          17 2 1 1 2.</_>
        <_>
          18 3 1 1 2.</_></rects>
      <tilted>0</tilted></_>
    <_>
      <rects>
        <_>
          17 12 1 3 -1.</_>
        <_>
          17 13 1 1 3.</_></rects>
      <tilted>0</tilted></_>
    <_>
      <rects>
        <_>
          17 14 3 7 -1.</_>
        <_>
          18 14 1 7 3.</_></rects>
      <tilted>0</tilted></_>
    <_>
      <rects>
        <_>
          18 0 4 1 -1.</_>
        <_>
          20 0 2 1 2.</_></rects>
      <tilted>0</tilted></_>
    <_>
      <rects>
        <_>
          20 12 3 8 -1.</_>
        <_>
          21 12 1 8 3.</_></rects>
      <tilted>0</tilted></_>
    <_>
      <rects>
        <_>
          20 19 3 3 -1.</_>
        <_>
          20 20 3 1 3.</_></rects>
      <tilted>0</tilted></_>
    <_>
      <rects>
        <_>
          21 3 3 11 -1.</_>
        <_>
          22 3 1 11 3.</_></rects>
      <tilted>0</tilted></_>
    <_>
      <rects>
        <_>
          21 19 2 2 -1.</_>
        <_>
          21 20 2 1 2.</_></rects>
      <tilted>0</tilted></_>
    <_>
      <rects>
        <_>
          22 0 2 2 -1.</_>
        <_>
          22 1 2 1 2.</_></rects>
      <tilted>0</tilted></_>
    <_>
      <rects>
        <_>
          22 5 1 6 -1.</_>
        <_>
          22 7 1 2 3.</_></rects>
      <tilted>0</tilted></_>
    <_>
      <rects>
        <_>
          23 1 1 6 -1.</_>
        <_>
          23 4 1 3 2.</_></rects>
      <tilted>0</tilted></_></features></cascade>
</opencv_storage>
